    0.403383735793707672E+02    0.456811912639006501E+00    0.825152551055856831E+00   -0.281851906249280226E+01    0.291021488445944527E+02   -0.651862558838728745E+02
    0.370701798139352547E+02    0.328335222658413972E+00    0.953185991943753530E+00   -0.344663172551065511E+01    0.268009759468860906E+02   -0.619766434240898931E+02
    0.353006501079631647E+02    0.382868880082257557E+00    0.115436312738973212E+01   -0.470756085933480595E+01    0.828508475640592579E+01   -0.616415680365313321E+02
    0.207161636369787345E+02    0.484533104851742114E+00    0.658326342736064385E+00   -0.115096469401530399E+01    0.374000342350055703E+02   -0.614920660501226877E+02
    0.144192325766137142E+02    0.593895720931475135E+00    0.709555109785522720E+00   -0.139970906380131321E+01    0.258661443745299522E+02   -0.601373113049570307E+02
    0.307142699564423509E+02    0.221633991364528465E+00    0.895116633016378227E+00   -0.247250195772899106E+01    0.234027944959269618E+02   -0.600339743397428691E+02
    0.185540172810829738E+02    0.342629156039363725E+00    0.892271488667421120E+00   -0.207232301688802067E+01    0.220256053883653173E+02   -0.597580887582817439E+02
    0.248092309816724423E+02    0.301910801645919824E+00    0.809100585073082801E+00   -0.184586943061128683E+01    0.344570315080326779E+02   -0.596789622031661224E+02
    0.263728430507410962E+02    0.468105077972827022E+00    0.947101163558665582E+00   -0.332833487817919238E+01    0.825934863830356747E+01   -0.596286367264440926E+02
    0.200233556377319424E+02    0.392463759855976424E+00    0.117477023092623001E+01   -0.417930784914333131E+01    0.362617969421690312E+01   -0.594075581109842830E+02
    0.156010388705001848E+02    0.273778538457449760E+00    0.846201627049160909E+00   -0.168280567178711205E+01    0.347837386008443019E+02   -0.592526319242780843E+02
    0.312099889569972930E+02    0.272689831021836859E+00    0.108208180753446781E+01   -0.410395333057904121E+01    0.245399407885550467E+02   -0.590008548030294762E+02
    0.306995908176093266E+02    0.316619175361518679E+00    0.116377562317033489E+01   -0.466512008984769011E+01    0.728591956557933074E+01   -0.589798845713172781E+02
    0.338057531083125582E+02    0.228102553990276569E+00    0.107286548659000758E+01   -0.378517223308474371E+01    0.179880776860587055E+02   -0.588180298805655113E+02
    0.308126381500143864E+02    0.203895801540349725E+00    0.105607927909934718E+01   -0.340483030794546115E+01    0.206311968754155757E+02   -0.586801994218898173E+02
    0.241198808065115387E+02    0.456697912522115557E+00    0.112370404158453541E+01   -0.440120560262239024E+01    0.162006738259971605E+02   -0.586496256958836923E+02
    0.259408885063322217E+02    0.344582009239908393E+00    0.990797950130428040E+00   -0.343465592629639360E+01    0.280780216047116795E+02   -0.586231922337790579E+02
    0.209763324411229988E+02    0.259151919913812367E+00    0.864345366059925180E+00   -0.219049644886155459E+01    0.273575478620246919E+02   -0.585466821364458880E+02
    0.177979001098016099E+02    0.600925133958230107E+00    0.794043949634851920E+00   -0.215186881614471215E+01    0.238291184747855525E+02   -0.584615370656600035E+02
    0.193840965862645263E+02    0.308863007902112408E+00    0.104132188480829013E+01   -0.320844714314271950E+01    0.586292351467263018E+01   -0.582686418552802223E+02
    0.149743395400033066E+02    0.443778888579363207E+00    0.858933520478244450E+00   -0.224803049133640398E+01    0.232827949204984854E+02   -0.582659301178152802E+02
    0.239485754334147813E+02    0.439400109263257399E+00    0.118414129513006605E+01   -0.470207457563081910E+01    0.137912160908566399E+02   -0.582638634365506078E+02
    0.190873074975198058E+02    0.300763551893798609E+00    0.803602000544737072E+00   -0.164942524420010539E+01    0.345767709832389869E+02   -0.582343413124517610E+02
    0.171494539812149895E+02    0.203266865169314498E+00    0.930774125751057113E+00   -0.206936142379618815E+01    0.354366196935273265E+02   -0.581778399098319099E+02
    0.211191399042805621E+02    0.455463871941301279E+00    0.100658532075337237E+01   -0.340138228213713978E+01    0.199183042898116867E+02   -0.581119256422169883E+02
    0.193740372885605225E+02    0.664272820203508085E+00    0.832176745850924382E+00   -0.269002710951199120E+01    0.100857766471781360E+02   -0.580827075807096023E+02
    0.187813550618675258E+02    0.453267824277140408E+00    0.856768894248546964E+00   -0.240338205267288485E+01    0.306652495054624552E+02   -0.580804601618816037E+02
    0.169765576217918444E+02    0.516805163877740448E+00    0.796306169846247802E+00   -0.194471166978348320E+01    0.245022023693618358E+02   -0.580129099144226288E+02
    0.314436096762306008E+02    0.373757375017097437E+00    0.116732127139889763E+01   -0.483104479976602974E+01    0.125415090246398346E+02   -0.579790203099394432E+02
    0.169098469942967036E+02    0.199478547585599825E+00    0.908909258828996203E+00   -0.193758847109574917E+01    0.322973453978280602E+02   -0.579334462342930934E+02
    0.160857295157827380E+02    0.212850344819947079E+00    0.976317791846127991E+00   -0.230053299537781841E+01    0.278765242561018951E+02   -0.579257759343040632E+02
    0.179810423592330224E+02    0.531497909761628362E+00    0.112912592443297943E+01   -0.434412721673128477E+01    0.322740986258329698E+01   -0.579256735628511663E+02
    0.205660240880120639E+02    0.228934772359395244E+00    0.105213131811852656E+01   -0.292712739447166070E+01    0.236996181421744012E+02   -0.578613286611863913E+02
    0.146213335331661405E+02    0.323464187162118888E+00    0.960718054516140341E+00   -0.253994604510699240E+01    0.213746110943979772E+02   -0.578386859879721626E+02
    0.233647946781134230E+02    0.211243949122740027E+00    0.899720048860366384E+00   -0.216333559895948380E+01    0.280601626284758225E+02   -0.578051757485508872E+02
    0.152893620650991657E+02    0.430809622011652515E+00    0.915029255714261747E+00   -0.240539606999904487E+01    0.194841157200810109E+02   -0.577283301860373967E+02
    0.230839155718058286E+02    0.517298517570294769E+00    0.932057762684891267E+00   -0.320832648617456240E+01    0.104234184335890063E+02   -0.576726064538455176E+02
    0.225506610398196656E+02    0.252939788144792455E+00    0.892883088891809451E+00   -0.219636704742041200E+01    0.302178474868541045E+02   -0.576643941751203144E+02
    0.197803696196629488E+02    0.286095467052086383E+00    0.893994165423816156E+00   -0.238025797197905886E+01    0.344974593699533045E+02   -0.576607367596846530E+02
    0.222173054561579804E+02    0.513722398871296559E+00    0.884823567841066305E+00   -0.286092102899282974E+01    0.209273514491752053E+02   -0.575561582767196285E+02
    0.259427894358172466E+02    0.275894728452618143E+00    0.107739135206418291E+01   -0.353626301328470349E+01    0.162659353126042490E+02   -0.573839055776818441E+02
    0.219191502168115626E+02    0.396335518009216015E+00    0.101448500575656686E+01   -0.352672360584322053E+01    0.883336719666017345E+01   -0.573279909051294396E+02
    0.203265845502280342E+02    0.240929949316602970E+00    0.937798592620010418E+00   -0.252642072959092845E+01    0.166517016725927469E+02   -0.573153246253833188E+02
    0.196574376159488722E+02    0.269877934866233626E+00    0.112418292448486268E+01   -0.392114733622468670E+01    0.988197710069431778E+01   -0.573010484009672467E+02
    0.151503946067362065E+02    0.423695123710404298E+00    0.107012104396218999E+01   -0.344397039769057134E+01    0.178147807474222191E+02   -0.572270498942325148E+02
    0.222170054051422277E+02    0.260100742235588545E+00    0.105777817926767681E+01   -0.315320940439449293E+01    0.188994806363518109E+02   -0.571746922529420445E+02
    0.206625539399456422E+02    0.249742378483835487E+00    0.114873372501248405E+01   -0.366177922152827229E+01    0.219283651335002787E+02   -0.571681853981080792E+02
    0.206625539399456422E+02    0.249742378483835487E+00    0.114873372501248405E+01   -0.366177922152827229E+01    0.219283651335002787E+02   -0.571681853981080792E+02
    0.189656290506752896E+02    0.374146152165904633E+00    0.856035523752789018E+00   -0.214583273960194276E+01    0.271601056931238602E+02   -0.570736073349051622E+02
    0.217336121217760407E+02    0.248604606015907004E+00    0.990826249083453070E+00   -0.305909273383603342E+01    0.280371117223191533E+02   -0.569836066733873281E+02
    0.256773854648658713E+02    0.231942665597330233E+00    0.107747220106626673E+01   -0.343955253418903517E+01    0.148485377726334420E+02   -0.569832803800681944E+02
    0.258942884181381920E+02    0.287654319513879153E+00    0.963732040352550778E+00   -0.299441133279190552E+01    0.234350243064288009E+02   -0.569448401714169776E+02
    0.164796132972275018E+02    0.221301882827569268E+00    0.103623985591603684E+01   -0.276911386082718858E+01    0.150204121135420614E+02   -0.569418716548812540E+02
    0.164796132972275018E+02    0.221301882827569268E+00    0.103623985591603684E+01   -0.276911386082718858E+01    0.150204121135420614E+02   -0.569418716548812540E+02
    0.255270536366462473E+02    0.446033311221829043E+00    0.108494016043126629E+01   -0.416268093688209007E+01    0.101738856803113151E+02   -0.569214645454432215E+02
    0.198503124732422869E+02    0.538333250457777246E+00    0.118915456976349199E+01   -0.473279297799391685E+01    0.571208991134997390E+01   -0.568855536138547890E+02
    0.188188000373200452E+02    0.271050643699855931E+00    0.896445477380257261E+00   -0.213462901286387741E+01    0.260663064158643465E+02   -0.568790832754997666E+02
    0.163654349199279423E+02    0.370928562957362151E+00    0.921174317507852392E+00   -0.246129262123606773E+01    0.255203975875612450E+02   -0.568544618993775401E+02
    0.242700910624434414E+02    0.304546530729862819E+00    0.106835982242196859E+01   -0.350314517999242536E+01    0.175737048505599631E+02   -0.568326339344392508E+02
    0.242700910624434414E+02    0.304546530729862819E+00    0.106835982242196859E+01   -0.350314517999242536E+01    0.175737048505599631E+02   -0.568326339344392508E+02
    0.211733235165613323E+02    0.628998171461266020E+00    0.110819385237077772E+01   -0.467014578377175393E+01    0.783944673269736647E+01   -0.568172112959368221E+02
    0.211733235165613323E+02    0.628998171461266020E+00    0.110819385237077772E+01   -0.467014578377175393E+01    0.783944673269736647E+01   -0.568172112959368221E+02
    0.212706938557719241E+02    0.376327317646090065E+00    0.936274593294973645E+00   -0.278102450689205494E+01    0.248699404881000490E+02   -0.567985636256878834E+02
    0.162413028594157645E+02    0.404968704426596882E+00    0.975188435426895150E+00   -0.298781360043028910E+01    0.233682306190732056E+02   -0.567803800045006994E+02
    0.159283632015932390E+02    0.495214444021666034E+00    0.111781619217945893E+01   -0.426223524004268750E+01    0.991026001338581786E+01   -0.567047950298354451E+02
    0.197510240858459483E+02    0.665273511829687747E+00    0.101256672141071902E+01   -0.402577506482198899E+01    0.821528572576418270E+01   -0.567035692528492135E+02
    0.179039997544274172E+02    0.309977895534792491E+00    0.957621768186609379E+00   -0.263311418070288239E+01    0.139979004174887702E+02   -0.566984936232297017E+02
    0.179039997544274172E+02    0.309977895534792491E+00    0.957621768186609379E+00   -0.263311418070288239E+01    0.139979004174887702E+02   -0.566984936232297017E+02
    0.260586397743046945E+02    0.343995705605664892E+00    0.103768405645710904E+01   -0.370320539207225563E+01    0.150064637555114722E+02   -0.566576471972449482E+02
    0.201423066499516565E+02    0.261770647729331563E+00    0.987980771605206365E+00   -0.275358439339515293E+01    0.140080431335485791E+02   -0.566438269004779826E+02
    0.211015168888771356E+02    0.380429258077655541E+00    0.110780551359268076E+01   -0.403123726827148054E+01    0.655111801976384100E+01   -0.566059826981130243E+02
    0.211015168888771356E+02    0.380429258077655541E+00    0.110780551359268076E+01   -0.403123726827148054E+01    0.655111801976384100E+01   -0.566059826981130243E+02
    0.251111862604969573E+02    0.315247739025872553E+00    0.978488827298269692E+00   -0.314797976094928167E+01    0.198000020289719316E+02   -0.565790141699581923E+02
    0.251111862604969573E+02    0.315247739025872553E+00    0.978488827298269692E+00   -0.314797976094928167E+01    0.198000020289719316E+02   -0.565790141699581923E+02
    0.185681664284577934E+02    0.422191347943067674E+00    0.117035020032777037E+01   -0.437366019170055775E+01    0.468177898567922846E+01   -0.565757282484647206E+02
    0.159361321168482668E+02    0.364522717823408338E+00    0.943510709646302681E+00   -0.262788613994421949E+01    0.215195146025966935E+02   -0.565556621406025215E+02
    0.173779045090745257E+02    0.371824144766594866E+00    0.975218205739793675E+00   -0.300716234827280893E+01    0.239456369690821731E+02   -0.565240216966404034E+02
    0.173779045090745257E+02    0.371824144766594866E+00    0.975218205739793675E+00   -0.300716234827280893E+01    0.239456369690821731E+02   -0.565240216966404034E+02
    0.197661381380542878E+02    0.267199631837624796E+00    0.968927652966319330E+00   -0.263889364643306035E+01    0.156005685596846284E+02   -0.565202175342182827E+02
    0.208659726812669852E+02    0.276597526529951898E+00    0.910467473852355269E+00   -0.235300043072086940E+01    0.254936916999093697E+02   -0.565196690632344030E+02
    0.208659726812669852E+02    0.276597526529951898E+00    0.910467473852355269E+00   -0.235300043072086940E+01    0.254936916999093697E+02   -0.565196690632344030E+02
    0.192816884522119025E+02    0.315153400989553911E+00    0.989455736572496969E+00   -0.287013386780193569E+01    0.123436295568051122E+02   -0.564909762230156147E+02
    0.177110702890837501E+02    0.370385520127284762E+00    0.921770600615453350E+00   -0.253251602219259553E+01    0.163558834779463673E+02   -0.563826799926331077E+02
    0.177110702890837501E+02    0.370385520127284762E+00    0.921770600615453350E+00   -0.253251602219259553E+01    0.163558834779463673E+02   -0.563826799926331077E+02
    0.215925125176205590E+02    0.330671910784690937E+00    0.945975869332630670E+00   -0.279368475461147447E+01    0.163805960705196121E+02   -0.563745108371858450E+02
    0.199068348849278642E+02    0.560913338798401884E+00    0.101985849526540995E+01   -0.391158985375110690E+01    0.104388840457806573E+02   -0.563537252322547246E+02
    0.263375222746414366E+02    0.202770890802587700E+00    0.105716491259422196E+01   -0.332441002112022410E+01    0.232669375092530366E+02   -0.563482083658133561E+02
    0.221639478781378187E+02    0.217869542678479133E+00    0.113586361570595940E+01   -0.355028908175299085E+01    0.145061510536306386E+02   -0.562732609170681073E+02
    0.221639478781378187E+02    0.217869542678479133E+00    0.113586361570595940E+01   -0.355028908175299085E+01    0.145061510536306386E+02   -0.562732609170681073E+02
    0.187047609238736037E+02    0.237183703328634587E+00    0.115743310265254817E+01   -0.388838916086075237E+01    0.867681938473394965E+01   -0.562424918093030044E+02
    0.180156021195703460E+02    0.535909209135023712E+00    0.101536120232251070E+01   -0.349969441072856169E+01    0.124974872981003173E+02   -0.562316850360033627E+02
    0.258377503754527815E+02    0.356163255640897847E+00    0.114097398641057857E+01   -0.446375922054863494E+01    0.110083905918260445E+02   -0.561775290939248251E+02
    0.191754788120244442E+02    0.280123932254164043E+00    0.101683883216886373E+01   -0.296728771580096495E+01    0.271904062309292129E+02   -0.561696520190348707E+02
    0.176429946021533937E+02    0.392929122227742733E+00    0.121992347169231752E+01   -0.477074820271322331E+01    0.162122442457566294E+02   -0.561689646334564472E+02
    0.193363361970997545E+02    0.325590238092492157E+00    0.112432245207316850E+01   -0.386237419559338946E+01    0.226764310699130220E+02   -0.561445927681886374E+02
    0.193363361970997545E+02    0.325590238092492157E+00    0.112432245207316850E+01   -0.386237419559338946E+01    0.226764310699130220E+02   -0.561445927681886374E+02
    0.169535183841763626E+02    0.272957716641251347E+00    0.113464073016863898E+01   -0.383002482282444223E+01    0.178230325969918830E+02   -0.561330224981897388E+02
    0.166616595645723393E+02    0.398573821310461596E+00    0.101561037003399135E+01   -0.330952129273562257E+01    0.188218496152446910E+02   -0.561227037263951587E+02
    0.244658187365377628E+02    0.260642148501422533E+00    0.105021765095584985E+01   -0.348615244128189739E+01    0.152379399918714373E+02   -0.560240776448366731E+02
    0.232213737532781153E+02    0.203833159989391194E+00    0.994009344245187276E+00   -0.287326722726347317E+01    0.300925579433334320E+02   -0.560118685384972679E+02
    0.232213737532781153E+02    0.203833159989391194E+00    0.994009344245187276E+00   -0.287326722726347317E+01    0.300925579433334320E+02   -0.560118685384972679E+02
    0.241873288011601204E+02    0.243067771837320146E+00    0.111433122887451286E+01   -0.383480035544079678E+01    0.113635541824117325E+02   -0.559629942492679859E+02
    0.171201719447697798E+02    0.215967324122353671E+00    0.112052840552193955E+01   -0.323200357257192650E+01    0.159903161663552353E+02   -0.559518441197291807E+02
    0.215788330314292480E+02    0.341557905474933532E+00    0.119589357583602873E+01   -0.429838303322910775E+01    0.101248348281223226E+02   -0.558730545473849673E+02
    0.192978124410314287E+02    0.370114779232506186E+00    0.101296898064243113E+01   -0.324066325182581716E+01    0.228433979219074317E+02   -0.558672228408759537E+02
    0.192978124410314287E+02    0.370114779232506186E+00    0.101296898064243113E+01   -0.324066325182581716E+01    0.228433979219074317E+02   -0.558672228408759537E+02
    0.198755198044430337E+02    0.365704289378654623E+00    0.103511103840680563E+01   -0.346091340649001289E+01    0.227792362314581212E+02   -0.558517265237226610E+02
    0.221840204144380095E+02    0.217818431347323094E+00    0.111425263972862432E+01   -0.376267750194601236E+01    0.129961385226857900E+02   -0.558337369781038220E+02
    0.221840204144380095E+02    0.217818431347323094E+00    0.111425263972862432E+01   -0.376267750194601236E+01    0.129961385226857900E+02   -0.558337369781038220E+02
    0.159024026185741754E+02    0.207708754293597031E+00    0.122471351493158198E+01   -0.386667560328373172E+01    0.200312207289415767E+02   -0.558089605083614160E+02
    0.159024026185741754E+02    0.207708754293597031E+00    0.122471351493158198E+01   -0.386667560328373172E+01    0.200312207289415767E+02   -0.558089605083614160E+02
    0.218081599733005191E+02    0.205490859694696576E+00    0.101751141265191780E+01   -0.288842147939313154E+01    0.277850802908374916E+02   -0.557937989403998245E+02
    0.218081599733005191E+02    0.205490859694696576E+00    0.101751141265191780E+01   -0.288842147939313154E+01    0.277850802908374916E+02   -0.557937989403998245E+02
    0.211594520040561527E+02    0.292777734068099704E+00    0.112814890306221982E+01   -0.371153376974908067E+01    0.169761456986617816E+02   -0.557896122816474715E+02
    0.211594520040561527E+02    0.292777734068099704E+00    0.112814890306221982E+01   -0.371153376974908067E+01    0.169761456986617816E+02   -0.557896122816474715E+02
    0.258308522592886973E+02    0.219074420259859542E+00    0.113721613289677226E+01   -0.399444585581646727E+01    0.242900589183034441E+02   -0.557201779057840128E+02
    0.257430181109895742E+02    0.250422116434651842E+00    0.107944418014583765E+01   -0.364457737946084892E+01    0.203607137315796578E+02   -0.557067648447675552E+02
    0.198455747169826076E+02    0.252675859285553583E+00    0.102879656146410015E+01   -0.309165205146129018E+01    0.144176791943562748E+02   -0.557041891063436481E+02
    0.160689358168335232E+02    0.213388844880780776E+00    0.119799494286585539E+01   -0.373985949468814205E+01    0.126148098872869845E+02   -0.556885570340078004E+02
    0.161848009436537303E+02    0.355917943474281018E+00    0.118197136368115996E+01   -0.406791300953727131E+01    0.789126631676904466E+01   -0.556784508110473197E+02
    0.172531836149405926E+02    0.377477233190970152E+00    0.100892515163508145E+01   -0.313406189023873560E+01    0.212719843459725269E+02   -0.556652930248187729E+02
    0.185785942206633266E+02    0.251599998737147001E+00    0.109727544429428248E+01   -0.343893845036061485E+01    0.264284921299282551E+02   -0.556631429659646031E+02
    0.239201176031821241E+02    0.221416920396227318E+00    0.116070878573728509E+01   -0.389052729339000880E+01    0.132100878319215962E+02   -0.556536976169923818E+02
    0.177570737891987598E+02    0.385832497069190261E+00    0.979869379461965839E+00   -0.292756512562999305E+01    0.150685766488638482E+02   -0.556035268651641843E+02
    0.172883066870877968E+02    0.298856600913343318E+00    0.998847877540112949E+00   -0.288592182372474459E+01    0.187863691018161170E+02   -0.555925796426166343E+02
    0.244814049880550044E+02    0.391267923933684314E+00    0.117457294782388511E+01   -0.470081813353173317E+01    0.137106365857144912E+02   -0.555634299842256212E+02
    0.244551314314015116E+02    0.207114923780889526E+00    0.105402369382895644E+01   -0.334211040994686526E+01    0.256372910462075154E+02   -0.555399774140692557E+02
    0.206394982725407665E+02    0.263387818236181792E+00    0.103785314954594599E+01   -0.307442786210329322E+01    0.193465847058917610E+02   -0.554974844990044787E+02
    0.270321087081979812E+02    0.231116058643482059E+00    0.122252775154986115E+01   -0.476280352252770278E+01    0.186354134363770392E+02   -0.554923427124346844E+02
    0.174326918097295867E+02    0.377648906383633576E+00    0.998811987284237812E+00   -0.306649247354046572E+01    0.139470817039109498E+02   -0.554882039609572999E+02
    0.167195702302281468E+02    0.259256182847007410E+00    0.121112155865795912E+01   -0.424172946175209820E+01    0.136074545963785809E+02   -0.554848854390002799E+02
    0.188399148615298841E+02    0.238012280420020095E+00    0.109401530444314599E+01   -0.339210696078022966E+01    0.121793405199263418E+02   -0.554060783773469510E+02
    0.178206545481656562E+02    0.284645928160578043E+00    0.102057722668950368E+01   -0.292182054496982868E+01    0.195314607679182686E+02   -0.553955017441145614E+02
    0.153115994284396102E+02    0.361859953467599305E+00    0.119674163821239388E+01   -0.422440139122488922E+01    0.142217908419392156E+02   -0.553689766625714341E+02
    0.231993237149587586E+02    0.243803855644397771E+00    0.122693229961434191E+01   -0.435939711414593400E+01    0.176157884004216960E+02   -0.553659334801354319E+02
    0.231993237149587586E+02    0.243803855644397771E+00    0.122693229961434191E+01   -0.435939711414593400E+01    0.176157884004216960E+02   -0.553659334801354319E+02
    0.215411857058980374E+02    0.245871404471466687E+00    0.116464269635569773E+01   -0.383764948448892973E+01    0.171746921621338160E+02   -0.553562903413210066E+02
    0.215411857058980374E+02    0.245871404471466687E+00    0.116464269635569773E+01   -0.383764948448892973E+01    0.171746921621338160E+02   -0.553562903413210066E+02
    0.174395572624216619E+02    0.568926328478986609E+00    0.111450310302282207E+01   -0.430942077812197066E+01    0.833196581375078615E+01   -0.553478101498826831E+02
    0.185543275757932662E+02    0.422591774350739080E+00    0.122964271204308351E+01   -0.495313465369272876E+01    0.135291805283884123E+02   -0.553317931300546064E+02
    0.185543275757932662E+02    0.422591774350739080E+00    0.122964271204308351E+01   -0.495313465369272876E+01    0.135291805283884123E+02   -0.553317931300546064E+02
    0.194116862767901210E+02    0.254331588873592529E+00    0.116475514499792610E+01   -0.377753664494095043E+01    0.194365770357362564E+02   -0.553194184030195828E+02
    0.203148638105249404E+02    0.303926304051193696E+00    0.121115990226112902E+01   -0.427877881899164159E+01    0.862460322599149265E+01   -0.553100371149217622E+02
    0.197767908508669521E+02    0.409850617883205037E+00    0.114953781176900027E+01   -0.415050153732832072E+01    0.959462376831198327E+01   -0.552907975364309294E+02
    0.180120643100640123E+02    0.348396655514071063E+00    0.109072873004084925E+01   -0.375545058294533174E+01    0.188959051494731227E+02   -0.552670955393983547E+02
    0.243883067007861385E+02    0.293986830600138194E+00    0.125187008208194039E+01   -0.476639793858200012E+01    0.136133367496895801E+02   -0.552623942763131524E+02
    0.222863067215055430E+02    0.450782921417587856E+00    0.120465258938107778E+01   -0.498612818549320558E+01    0.110855990533594309E+02   -0.552443556678145100E+02
    0.270324758663096176E+02    0.200610049576092186E+00    0.120046057102863846E+01   -0.444950706008787122E+01    0.209180636908380073E+02   -0.552388663576972689E+02
    0.197954359813338101E+02    0.376739477671783785E+00    0.126791247257928164E+01   -0.499696435698964514E+01    0.563356956164920142E+01   -0.552379161966591639E+02
    0.189140442889316560E+02    0.215750826861836720E+00    0.103691436635456502E+01   -0.290771116092284920E+01    0.233329920259049359E+02   -0.552085079645871346E+02
    0.239484195009041159E+02    0.370852740200808773E+00    0.116235873434306503E+01   -0.455010599556685591E+01    0.113576728588877227E+02   -0.552073957003279290E+02
    0.157968462474291318E+02    0.257165927750127088E+00    0.128681335712248091E+01   -0.444282269580783407E+01    0.164455431216058443E+02   -0.552031645455849542E+02
    0.202387887476011343E+02    0.433702090448885746E+00    0.115459013147807799E+01   -0.435089314012307948E+01    0.126639818555103503E+02   -0.551997685325220857E+02
    0.251060911988797990E+02    0.326261581124098365E+00    0.121744589321153596E+01   -0.490785848852872242E+01    0.132120067851487768E+02   -0.551794358548512562E+02
    0.172732770224164831E+02    0.309892724101185235E+00    0.107499615416757477E+01   -0.342182796321299865E+01    0.212293440671925602E+02   -0.551719153753162814E+02
    0.180622841914542676E+02    0.253267356730669191E+00    0.116315455226353004E+01   -0.390923369345424154E+01    0.108282767875499424E+02   -0.551680331695272557E+02
    0.166705733170418888E+02    0.199065549464397779E+00    0.114910553484597555E+01   -0.356278710488309613E+01    0.186586065361794482E+02   -0.551641745514804072E+02
    0.209600734661286197E+02    0.323149613104081690E+00    0.110937535498165052E+01   -0.397146802956528111E+01    0.195722843633255899E+02   -0.551454835616743964E+02
    0.212126067494423971E+02    0.218459508703901767E+00    0.109804622549991460E+01   -0.357364201865528797E+01    0.150313456755558619E+02   -0.551280144192546260E+02
    0.200456272226464023E+02    0.386089598767230480E+00    0.117592953534115141E+01   -0.442165230544713062E+01    0.157836009830488457E+02   -0.550758372839796664E+02
    0.229940492846501243E+02    0.324474372175043546E+00    0.109663806030671629E+01   -0.383014801131300375E+01    0.168733797974533815E+02   -0.550594592121487096E+02
    0.225472105786217085E+02    0.364140459402129357E+00    0.120167286908821658E+01   -0.455961892805865965E+01    0.113934500157462413E+02   -0.550578881185867317E+02
    0.194475835208630699E+02    0.450004625869662278E+00    0.115506650774196395E+01   -0.438289857481583667E+01    0.123584201903743924E+02   -0.550197711952310300E+02
    0.183007693731847567E+02    0.286680974234298058E+00    0.110774766924451384E+01   -0.348140629728130691E+01    0.134538747520598445E+02   -0.549948086544175538E+02
    0.206703221178023497E+02    0.333729979237915864E+00    0.123126955266821980E+01   -0.463948343807495966E+01    0.730913756303343387E+01   -0.549433449541163839E+02
    0.228738716884997189E+02    0.239159178431008257E+00    0.109110806580658548E+01   -0.360656411595740467E+01    0.159100058063682521E+02   -0.549430707422503133E+02
    0.170281580848890783E+02    0.388849688735726617E+00    0.127580076415595212E+01   -0.490899712135599309E+01    0.131126450493834295E+02   -0.549046587399879158E+02
    0.224491963719878456E+02    0.238121872197484014E+00    0.115827484377554168E+01   -0.407739821319457008E+01    0.125259383394344059E+02   -0.548499873249088097E+02
    0.187778525352204895E+02    0.226817939880750857E+00    0.119733539786616938E+01   -0.387448960248152030E+01    0.185685856899511421E+02   -0.548276787721721064E+02
    0.197461036090385207E+02    0.294954077811109383E+00    0.118564246375254645E+01   -0.411308410907715238E+01    0.951831254451932729E+01   -0.548219700053293764E+02
    0.175486406142864624E+02    0.241284712949424024E+00    0.112556806396235509E+01   -0.360974714425523535E+01    0.210666624791208363E+02   -0.548099847905185058E+02
    0.178030561876749331E+02    0.379725434455729816E+00    0.121679233542664655E+01   -0.444791174861134042E+01    0.127752071992798548E+02   -0.547113524827220559E+02
    0.185699222105749300E+02    0.286161976772213444E+00    0.113887053242361902E+01   -0.374338505620071338E+01    0.115967237657773570E+02   -0.547066974815823173E+02
    0.213681920093479683E+02    0.237626431364517360E+00    0.126878733158227841E+01   -0.460751356849523308E+01    0.845356486403488105E+01   -0.547027568393042287E+02
    0.182147755864322001E+02    0.249830676555440057E+00    0.114260655986043824E+01   -0.379046361826455636E+01    0.142128914224436862E+02   -0.546889939095644664E+02
    0.212851674081802003E+02    0.354026311839049035E+00    0.124241219909550460E+01   -0.472962491500351234E+01    0.956183153732112423E+01   -0.546482304638017595E+02
    0.175442754217398864E+02    0.219128802765120034E+00    0.124815247618665381E+01   -0.410216894256433307E+01    0.126018663891787455E+02   -0.546482052586298437E+02
    0.177380405044388638E+02    0.358928320171239656E+00    0.110408224881181960E+01   -0.380214247366785862E+01    0.164746848355668405E+02   -0.546348279478322283E+02
    0.204730819136019164E+02    0.262606493951309750E+00    0.106548266680826642E+01   -0.333057721828776465E+01    0.194822434070640575E+02   -0.546294804334421897E+02
    0.159228601873497571E+02    0.264266735809065678E+00    0.131839673879198505E+01   -0.472102237859599327E+01    0.146705047513634987E+02   -0.546098569659498665E+02
    0.183805034903996471E+02    0.239723732314583687E+00    0.136431862015199168E+01   -0.495096921728627670E+01    0.809059146258110928E+01   -0.545951832132050967E+02
    0.201769733755983580E+02    0.244527937223825598E+00    0.133147215272186492E+01   -0.482745198037541634E+01    0.135074233091745253E+02   -0.545836712710219913E+02
    0.198635952337428208E+02    0.203016459710457758E+00    0.134286654735496769E+01   -0.482401418130028770E+01    0.181384408862784667E+02   -0.545093879433378277E+02
    0.190974932276677976E+02    0.269318437381550091E+00    0.112611812884541140E+01   -0.364484071367986306E+01    0.193286250307635541E+02   -0.544907620752917481E+02
    0.202504834043755118E+02    0.203808728557685781E+00    0.134149624078359597E+01   -0.474794798187368539E+01    0.140253133151878959E+02   -0.544845506187311415E+02
    0.224405467871438944E+02    0.340352869293375326E+00    0.116523926572934355E+01   -0.433777958274624620E+01    0.125486892289558156E+02   -0.544729780386809850E+02
    0.193708863649724670E+02    0.339993988970811900E+00    0.126201867390979827E+01   -0.471983067339628004E+01    0.816584754766754983E+01   -0.544620972679180682E+02
    0.223946820745461110E+02    0.328637838272631433E+00    0.120661111142651967E+01   -0.453962888493363881E+01    0.136590254946748093E+02   -0.544467029758240102E+02
    0.255437730938126961E+02    0.216245651097209446E+00    0.122611759932395081E+01   -0.458087715025367714E+01    0.169810435661827519E+02   -0.544292775189354927E+02
    0.192651400658582972E+02    0.285288916908747914E+00    0.121873972533705688E+01   -0.447389480345001544E+01    0.162103728225390569E+02   -0.538957676041139351E+02
    0.192651400658582972E+02    0.285288916908747914E+00    0.121873972533705688E+01   -0.447389480345001544E+01    0.162103728225390569E+02   -0.538957676041139351E+02
    0.213851395347117403E+02    0.229720552367972092E+00    0.115437081888522819E+01   -0.395450711170323599E+01    0.174781104016501132E+02   -0.539868131710489294E+02
    0.192189379970809320E+02    0.222462102344951590E+00    0.127621971064189421E+01   -0.462232926157113866E+01    0.139049321632480218E+02   -0.533574647156035056E+02
    0.192189379970809320E+02    0.222462102344951590E+00    0.127621971064189421E+01   -0.462232926157113866E+01    0.139049321632480218E+02   -0.533574647156035056E+02
    0.181472348877172891E+02    0.287179559351478708E+00    0.120891120292961451E+01   -0.432662630619953337E+01    0.149736600586713280E+02   -0.539137333635026508E+02
    0.204504284566175265E+02    0.223826267018788744E+00    0.114527930992485372E+01   -0.370551062084276328E+01    0.207638699320008406E+02   -0.543999662588783366E+02
    0.206320883772606791E+02    0.257080027469381300E+00    0.116620469270454352E+01   -0.402256117059265250E+01    0.206890524011869346E+02   -0.543518063616530256E+02
    0.213067772991700330E+02    0.208338967887750276E+00    0.127121490798146741E+01   -0.464320491802825686E+01    0.124770606008790530E+02   -0.535306971942933885E+02
    0.200692970012086320E+02    0.266048683209572701E+00    0.117967265390047493E+01   -0.402584865114420243E+01    0.155882607700039806E+02   -0.540117571249405160E+02
    0.200692970012086320E+02    0.266048683209572701E+00    0.117967265390047493E+01   -0.402584865114420243E+01    0.155882607700039806E+02   -0.540117571249405160E+02
    0.227300686220270691E+02    0.281914399003760696E+00    0.119624854884413567E+01   -0.442009976228155033E+01    0.170598073410055413E+02   -0.542621366529311402E+02
    0.202045176882367130E+02    0.266198415197631488E+00    0.117479555475319630E+01   -0.411830299957297896E+01    0.147371458352862952E+02   -0.538003381856263729E+02
    0.202045176882367130E+02    0.266198415197631488E+00    0.117479555475319630E+01   -0.411830299957297896E+01    0.147371458352862952E+02   -0.538003381856263729E+02
    0.206075590427335023E+02    0.211314890163148333E+00    0.115131955655701268E+01   -0.385803861118513902E+01    0.154854905212976384E+02   -0.542845110795279027E+02
    0.231301618104883921E+02    0.233245909780702643E+00    0.113828723703840895E+01   -0.391243993642467558E+01    0.184570680392049731E+02   -0.543639335564677424E+02
    0.238337176943015834E+02    0.220939418653963687E+00    0.116757555235887223E+01   -0.413163585265789557E+01    0.164018146635109261E+02   -0.543874910903178730E+02
    0.180900754185777686E+02    0.340361550535399848E+00    0.122587359986309008E+01   -0.449157026357094047E+01    0.906633691818082355E+01   -0.541939135091063164E+02
    0.203499586076253252E+02    0.256408265422030546E+00    0.108903963312919339E+01   -0.347856168997372084E+01    0.200446119024727558E+02   -0.544135186275707241E+02
    0.207121848506524628E+02    0.344349183900763411E+00    0.115683788127641041E+01   -0.421530996744884057E+01    0.119728637534919162E+02   -0.541937445425091084E+02
    0.186737135269272017E+02    0.227806153363747710E+00    0.116396721648993329E+01   -0.381232944199263457E+01    0.185795834641856032E+02   -0.539351918079822070E+02
    0.180669774826731455E+02    0.222296372525612185E+00    0.133215856616455208E+01   -0.467853626881595730E+01    0.137476932460173593E+02   -0.540335672805823037E+02
    0.216032070773513496E+02    0.284539776348775475E+00    0.123253795644877151E+01   -0.459069801896174745E+01    0.142968090308996221E+02   -0.537024143597173946E+02
    0.216032070773513496E+02    0.284539776348775475E+00    0.123253795644877151E+01   -0.459069801896174745E+01    0.142968090308996221E+02   -0.537024143597173946E+02
    0.189381176155643658E+02    0.367061848828186155E+00    0.124435972735366129E+01   -0.473813281905312955E+01    0.915314337062591576E+01   -0.539361716569744161E+02
    0.184661678133216967E+02    0.235972954659675438E+00    0.127829550562856964E+01   -0.460182004656287447E+01    0.173265043192296773E+02   -0.536015542657482698E+02
    0.206649409065617604E+02    0.265309230320669553E+00    0.116173482917964765E+01   -0.406974086027900661E+01    0.173678772362077716E+02   -0.539202988363711171E+02
    0.206649409065617604E+02    0.265309230320669553E+00    0.116173482917964765E+01   -0.406974086027900661E+01    0.173678772362077716E+02   -0.539202988363711171E+02
    0.226635755724649002E+02    0.199675615721796540E+00    0.123359704733499842E+01   -0.436490093686417069E+01    0.193814329293353111E+02   -0.539305006776893663E+02
    0.228104156531464142E+02    0.208014566663527356E+00    0.122983181658274443E+01   -0.450039253517294391E+01    0.132304022508618182E+02   -0.542117480913614145E+02
    0.202400883474887046E+02    0.300472937288613517E+00    0.111343428680084600E+01   -0.375233168762847402E+01    0.135002452922148866E+02   -0.544014083099410755E+02
    0.162860433146536039E+02    0.257583535703056643E+00    0.135493188090723726E+01   -0.489920081776649941E+01    0.133355874495997604E+02   -0.543067846244401480E+02
    0.186688557817712351E+02    0.362821331867387242E+00    0.122369239386982231E+01   -0.472231193333044619E+01    0.136744846212852664E+02   -0.543104055009146052E+02
    0.189352849735470770E+02    0.318274173884042333E+00    0.113980882061903643E+01   -0.390552845143217198E+01    0.118010601813051732E+02   -0.543249984185134878E+02
    0.237742120287276819E+02    0.198453778561028749E+00    0.123113032323721772E+01   -0.448234384519462825E+01    0.169355426085934866E+02   -0.538487474236818571E+02
    0.212536225946548569E+02    0.259525550802287730E+00    0.113507279733039335E+01   -0.387292879658986866E+01    0.139488291955406325E+02   -0.543455579841527339E+02
    0.186152452708992371E+02    0.215952163223008253E+00    0.121027991077671282E+01   -0.401602504105963831E+01    0.164302512365348043E+02   -0.537751051426539775E+02
    0.181336856927955985E+02    0.309200283299027212E+00    0.122475734046528806E+01   -0.441414474345388630E+01    0.895959656729021958E+01   -0.544033475738010850E+02
    0.229959302636631335E+02    0.230904730552877135E+00    0.116911146573898916E+01   -0.412569208875845561E+01    0.192262480691456723E+02   -0.542047136535412477E+02
    0.217366473764359895E+02    0.262995503382480178E+00    0.122122830438612362E+01   -0.451440355309190977E+01    0.111739774611114413E+02   -0.541666994400556803E+02
    0.184949564682414724E+02    0.242919775489763817E+00    0.125553298642216160E+01   -0.438332740610222515E+01    0.183665105663025265E+02   -0.541838048357387763E+02
    0.214285697379539535E+02    0.281185018651632146E+00    0.125397186327301102E+01   -0.486719636388812038E+01    0.123711899328961366E+02   -0.542159940221988776E+02
